ကြီး ||| &apos;s a big ||| 0.2 0.2 0.6 0.2 0.6 0.2
ကြီး ||| &apos;s rather large ||| 0.6 0.2 0.2 0.2 0.2 0.6
ကြီး ||| &apos;s ||| 0.2 0.2 0.6 0.6 0.2 0.2
ကြီး ||| a big ||| 0.111111 0.333333 0.555556 0.333333 0.555556 0.111111
ကြီး ||| a very big ||| 0.2 0.2 0.6 0.2 0.6 0.2
ကြီး ||| a ||| 0.0322581 0.806452 0.16129 0.0322581 0.741935 0.225806
ကြီး ||| as big as ||| 0.2 0.2 0.6 0.2 0.2 0.6
ကြီး ||| as big ||| 0.2 0.2 0.6 0.2 0.2 0.6
ကြီး ||| big , ||| 0.2 0.2 0.6 0.2 0.6 0.2
ကြီး ||| big as ||| 0.2 0.2 0.6 0.2 0.2 0.6
ကြီး ||| big ||| 0.2 0.12 0.68 0.28 0.2 0.52
ကြီး ||| chiefs ||| 0.2 0.2 0.6 0.2 0.2 0.6
ကြီး ||| get a ||| 0.2 0.2 0.6 0.2 0.2 0.6
ကြီး ||| great big ||| 0.2 0.2 0.6 0.2 0.2 0.6
ကြီး ||| great ||| 0.2 0.6 0.2 0.2 0.6 0.2
ကြီး ||| is there ||| 0.2 0.2 0.6 0.2 0.2 0.6
ကြီး ||| is ||| 0.142857 0.142857 0.714286 0.142857 0.428571 0.428571
ကြီး ||| large ||| 0.230769 0.384615 0.384615 0.538462 0.384615 0.0769231
ကြီး ||| latin ||| 0.2 0.2 0.6 0.2 0.2 0.6
ကြီး ||| makes much ||| 0.6 0.2 0.2 0.2 0.2 0.6
ကြီး ||| much ||| 0.2 0.2 0.6 0.2 0.2 0.6
ကြီး ||| older ||| 0.2 0.6 0.2 0.2 0.2 0.6
ကြီး ||| that big , ||| 0.2 0.6 0.2 0.2 0.6 0.2
ကြီး ||| that big ||| 0.2 0.6 0.2 0.2 0.2 0.6
ကြီး ||| to a ||| 0.2 0.2 0.6 0.2 0.2 0.6
ကြီး ||| to get a ||| 0.2 0.2 0.6 0.2 0.2 0.6
ကြီး ||| uncles ||| 0.2 0.2 0.6 0.6 0.2 0.2
ကြီး ||| very big ||| 0.2 0.2 0.6 0.2 0.6 0.2
ကြီး ဆယ် ||| ten large ||| 0.2 0.2 0.6 0.2 0.6 0.2
ခင် ||| &apos;re ||| 0.428571 0.142857 0.428571 0.142857 0.142857 0.714286
ခင် ||| are you out of ||| 0.6 0.2 0.2 0.6 0.2 0.2
ခင် ||| are you out ||| 0.6 0.2 0.2 0.2 0.2 0.6
ခင် ||| are you ||| 0.684211 0.0526316 0.263158 0.0526316 0.0526316 0.894737
ခင် ||| are ||| 0.806452 0.0322581 0.16129 0.419355 0.0322581 0.548387
ခင် ||| as khin khin ||| 0.2 0.2 0.6 0.2 0.2 0.6
ခင် ||| as khin ||| 0.2 0.2 0.6 0.2 0.2 0.6
ခင် ||| before he broke ||| 0.2 0.2 0.6 0.2 0.2 0.6
ခင် ||| before he ||| 0.2 0.2 0.6 0.2 0.2 0.6
ခင် ||| before i ||| 0.2 0.2 0.6 0.2 0.2 0.6
ခင် ||| before ||| 0.238095 0.333333 0.428571 0.238095 0.047619 0.714286
ခင် ||| congratulations on ||| 0.6 0.2 0.2 0.6 0.2 0.2
ခင် ||| congratulations ||| 0.6 0.2 0.2 0.2 0.2 0.6
ခင် ||| could ||| 0.6 0.2 0.2 0.2 0.2 0.6
ခင် ||| did you take to ||| 0.6 0.2 0.2 0.6 0.2 0.2
ခင် ||| did you take ||| 0.6 0.2 0.2 0.2 0.2 0.6
ခင် ||| did you ||| 0.714286 0.142857 0.142857 0.142857 0.142857 0.714286
ခင် ||| did ||| 0.428571 0.142857 0.428571 0.428571 0.142857 0.428571
ခင် ||| do you hold ||| 0.2 0.6 0.2 0.2 0.2 0.6
ခင် ||| do you want ||| 0.2 0.2 0.6 0.2 0.6 0.2
ခင် ||| do you ||| 0.333333 0.2 0.466667 0.0666667 0.0666667 0.866667
ခင် ||| do ||| 0.446809 0.0212766 0.531915 0.446809 0.148936 0.404255
ခင် ||| fall in ||| 0.2 0.2 0.6 0.2 0.6 0.2
ခင် ||| fall ||| 0.2 0.2 0.6 0.2 0.2 0.6
ခင် ||| for you ||| 0.2 0.2 0.6 0.6 0.2 0.2
ခင် ||| friendly ||| 0.2 0.6 0.2 0.2 0.6 0.2
ခင် ||| have you ||| 0.866667 0.0666667 0.0666667 0.0666667 0.0666667 0.866667
ခင် ||| how do you ||| 0.6 0.2 0.2 0.2 0.2 0.6
ခင် ||| how do ||| 0.6 0.2 0.2 0.2 0.2 0.6
ခင် ||| i ||| 0.555556 0.111111 0.333333 0.111111 0.333333 0.555556
ခင် ||| khin khin ||| 0.2 0.2 0.6 0.2 0.2 0.6
ခင် ||| khin ||| 0.2 0.2 0.6 0.2 0.2 0.6
ခင် ||| like ||| 0.6 0.2 0.2 0.2 0.2 0.6
ခင် ||| of yours ||| 0.2 0.2 0.6 0.2 0.2 0.6
ခင် ||| perhaps you ||| 0.6 0.2 0.2 0.2 0.2 0.6
ခင် ||| super ||| 0.2 0.2 0.6 0.2 0.2 0.6
ခင် ||| that ||| 0.6 0.2 0.2 0.2 0.2 0.6
ခင် ||| we would like ||| 0.6 0.2 0.2 0.2 0.2 0.6
ခင် ||| we would ||| 0.6 0.2 0.2 0.2 0.2 0.6
ခင် ||| what ||| 0.2 0.2 0.6 0.6 0.2 0.2
ခင် ||| will you take ||| 0.6 0.2 0.2 0.2 0.2 0.6
ခင် ||| will you ||| 0.6 0.2 0.2 0.2 0.2 0.6
ခင် ||| will ||| 0.6 0.2 0.2 0.2 0.2 0.6
ခင် ||| would like ||| 0.2 0.2 0.6 0.2 0.2 0.6
ခင် ||| would you like ||| 0.428571 0.142857 0.428571 0.142857 0.142857 0.714286
ခင် ||| would you mind moving ||| 0.6 0.2 0.2 0.6 0.2 0.2
ခင် ||| would you mind ||| 0.6 0.2 0.2 0.2 0.2 0.6
ခင် ||| would you ||| 0.466667 0.2 0.333333 0.2 0.0666667 0.733333
ခင် ||| would ||| 0.641026 0.025641 0.333333 0.333333 0.025641 0.641026
ခင် ||| you &apos;re ||| 0.6 0.2 0.2 0.2 0.2 0.6
ခင် ||| you continue to be so ||| 0.6 0.2 0.2 0.2 0.2 0.6
ခင် ||| you continue to be ||| 0.6 0.2 0.2 0.2 0.2 0.6
ခင် ||| you continue to ||| 0.6 0.2 0.2 0.2 0.2 0.6
ခင် ||| you continue ||| 0.6 0.2 0.2 0.2 0.2 0.6
ခင် ||| you enjoyed ||| 0.2 0.2 0.6 0.6 0.2 0.2
ခင် ||| you had ||| 0.6 0.2 0.2 0.6 0.2 0.2
ခင် ||| you mean by that ||| 0.2 0.2 0.6 0.2 0.2 0.6
ခင် ||| you mean by ||| 0.2 0.2 0.6 0.2 0.2 0.6
ခင် ||| you mean ||| 0.2 0.2 0.6 0.2 0.2 0.6
ခင် ||| you must ||| 0.6 0.2 0.2 0.2 0.2 0.6
ခင် ||| you ||| 0.28 0.088 0.632 0.056 0.088 0.856
ခင် ||| your ||| 0.2 0.2 0.6 0.2 0.2 0.6
ခင် ||| yours ||| 0.2 0.2 0.6 0.2 0.2 0.6
ခင် ပွန်း ||| husband ||| 0.6 0.2 0.2 0.2 0.2 0.6
ဆယ် ||| 10m ||| 0.2 0.2 0.6 0.2 0.2 0.6
ဆယ် ||| a ten ||| 0.2 0.2 0.6 0.6 0.2 0.2
ဆယ် ||| about ten ||| 0.272727 0.0909091 0.636364 0.818182 0.0909091 0.0909091
ဆယ် ||| after ten ||| 0.142857 0.142857 0.714286 0.714286 0.142857 0.142857
ဆယ် ||| available ||| 0.2 0.2 0.6 0.6 0.2 0.2
ဆယ် ||| for about ten ||| 0.2 0.2 0.6 0.6 0.2 0.2
ဆယ် ||| for ten ||| 0.428571 0.142857 0.428571 0.714286 0.142857 0.142857
ဆယ် ||| have ten ||| 0.142857 0.142857 0.714286 0.428571 0.428571 0.142857
ဆယ် ||| i have ten ||| 0.2 0.2 0.6 0.2 0.6 0.2
ဆယ် ||| immediately available ||| 0.2 0.2 0.6 0.6 0.2 0.2
ဆယ် ||| in about ten ||| 0.2 0.2 0.6 0.6 0.2 0.2
ဆယ် ||| only got ten ||| 0.2 0.2 0.6 0.2 0.6 0.2
ဆယ် ||| over ten ||| 0.2 0.2 0.6 0.6 0.2 0.2
ဆယ် ||| place an order for ten ||| 0.2 0.2 0.6 0.6 0.2 0.2
ဆယ် ||| something after ten ||| 0.2 0.2 0.6 0.6 0.2 0.2
ဆယ် ||| ten ||| 0.105882 0.2 0.694118 0.623529 0.0823529 0.294118
ဆယ် ||| the ten ||| 0.2 0.2 0.6 0.2 0.2 0.6
ဆယ် ||| you ten ||| 0.2 0.2 0.6 0.6 0.2 0.2
ပါး ||| of ||| 0.2 0.2 0.6 0.2 0.2 0.6
ပါး ||| thin ||| 0.428571 0.142857 0.428571 0.142857 0.142857 0.714286
ပါး ||| time of ||| 0.2 0.2 0.6 0.2 0.2 0.6
။ ||| ! &apos; ||| 0.2 0.2 0.6 0.6 0.2 0.2
။ ||| ! help ||| 0.2 0.2 0.6 0.2 0.6 0.2
။ ||| ! ||| 0.185185 0.00529101 0.809524 0.915344 0.00529101 0.0793651
။ ||| &apos; . &quot; ||| 0.2 0.2 0.6 0.2 0.2 0.6
။ ||| &apos; . ||| 0.333333 0.111111 0.555556 0.555556 0.111111 0.333333
။ ||| &apos;s like . ||| 0.2 0.2 0.6 0.6 0.2 0.2
။ ||| &apos;s ||| 0.272727 0.0909091 0.636364 0.0909091 0.272727 0.636364
။ ||| &apos;ve made . ||| 0.2 0.2 0.6 0.6 0.2 0.2
။ ||| . &quot; ||| 0.142857 0.142857 0.714286 0.142857 0.142857 0.714286
။ ||| . i ||| 0.2 0.2 0.6 0.2 0.2 0.6
။ ||| . ||| 0.0719164 0.000401768 0.927682 0.922593 0.000401768 0.0770055
။ ||| ? ||| 0.173184 0.00558659 0.821229 0.910615 0.0167598 0.0726257
။ ||| a bell . ||| 0.6 0.2 0.2 0.6 0.2 0.2
။ ||| a short time . ||| 0.2 0.2 0.6 0.6 0.2 0.2
။ ||| a treasure . ||| 0.2 0.2 0.6 0.6 0.2 0.2
။ ||| a waiting list . ||| 0.2 0.2 0.6 0.6 0.2 0.2
။ ||| about . ||| 0.2 0.2 0.6 0.6 0.2 0.2
။ ||| about it . ||| 0.2 0.2 0.6 0.6 0.2 0.2
။ ||| after all . ||| 0.2 0.2 0.6 0.2 0.2 0.6
။ ||| again . ||| 0.111111 0.111111 0.777778 0.777778 0.111111 0.111111
။ ||| alert . ||| 0.2 0.2 0.6 0.6 0.2 0.2
။ ||| all . ||| 0.0769231 0.0769231 0.846154 0.692308 0.0769231 0.230769
။ ||| all cost . ||| 0.2 0.2 0.6 0.6 0.2 0.2
။ ||| am . ||| 0.2 0.2 0.6 0.6 0.2 0.2
။ ||| an hour . ||| 0.2 0.2 0.6 0.6 0.2 0.2
။ ||| and myself . ||| 0.2 0.2 0.6 0.6 0.2 0.2
။ ||| and scolded . ||| 0.2 0.2 0.6 0.6 0.2 0.2
။ ||| and when . ||| 0.2 0.2 0.6 0.6 0.2 0.2
။ ||| anger . ||| 0.2 0.2 0.6 0.2 0.2 0.6
။ ||| answer . ||| 0.2 0.2 0.6 0.6 0.2 0.2
။ ||| are . ||| 0.142857 0.142857 0.714286 0.714286 0.142857 0.142857
။ ||| are drawing near . ||| 0.2 0.2 0.6 0.6 0.2 0.2
။ ||| are tight . ||| 0.2 0.2 0.6 0.6 0.2 0.2
။ ||| are ||| 0.111111 0.111111 0.777778 0.111111 0.777778 0.111111
။ ||| away . ||| 0.142857 0.142857 0.714286 0.714286 0.142857 0.142857
။ ||| back . ||| 0.2 0.2 0.6 0.6 0.2 0.2
။ ||| bad ! ||| 0.2 0.2 0.6 0.6 0.2 0.2
။ ||| bad . ||| 0.2 0.2 0.6 0.6 0.2 0.2
။ ||| be cleaned . ||| 0.2 0.2 0.6 0.2 0.2 0.6
။ ||| be lot out ! ||| 0.2 0.2 0.6 0.6 0.2 0.2
။ ||| be tough . ||| 0.6 0.2 0.2 0.6 0.2 0.2
။ ||| bell . ||| 0.2 0.2 0.6 0.6 0.2 0.2
။ ||| blue label . ||| 0.6 0.2 0.2 0.6 0.2 0.2
။ ||| boss . ||| 0.142857 0.142857 0.714286 0.428571 0.142857 0.428571
။ ||| bounds . ||| 0.2 0.2 0.6 0.6 0.2 0.2
။ ||| broken . ||| 0.714286 0.142857 0.142857 0.714286 0.142857 0.142857
။ ||| careful . ||| 0.2 0.2 0.6 0.6 0.2 0.2
။ ||| check ? ||| 0.2 0.2 0.6 0.6 0.2 0.2
။ ||| cleaned . ||| 0.2 0.2 0.6 0.2 0.2 0.6
။ ||| cost . ||| 0.2 0.2 0.6 0.6 0.2 0.2
။ ||| days . ||| 0.2 0.2 0.6 0.6 0.2 0.2
။ ||| die down . ||| 0.2 0.2 0.6 0.6 0.2 0.2
။ ||| dirt . ||| 0.2 0.2 0.6 0.6 0.2 0.2
။ ||| do ? ||| 0.2 0.2 0.6 0.6 0.2 0.2
။ ||| does . ||| 0.2 0.2 0.6 0.6 0.2 0.2
။ ||| doing what was right . ||| 0.2 0.2 0.6 0.6 0.2 0.2
။ ||| down . ||| 0.2 0.2 0.6 0.6 0.2 0.2
။ ||| drawing near . ||| 0.2 0.2 0.6 0.6 0.2 0.2
။ ||| especially . ||| 0.2 0.2 0.6 0.6 0.2 0.2
။ ||| far . ||| 0.2 0.2 0.6 0.6 0.2 0.2
။ ||| for it . ||| 0.2 0.2 0.6 0.6 0.2 0.2
။ ||| for me . ||| 0.2 0.2 0.6 0.6 0.2 0.2
။ ||| friends . ||| 0.2 0.2 0.6 0.6 0.2 0.2
။ ||| gets . ||| 0.2 0.2 0.6 0.6 0.2 0.2
။ ||| give up . ||| 0.2 0.2 0.6 0.6 0.2 0.2
။ ||| go . ||| 0.2 0.2 0.6 0.6 0.2 0.2
။ ||| go on strike . ||| 0.2 0.2 0.6 0.2 0.2 0.6
။ ||| have ! ||| 0.2 0.2 0.6 0.6 0.2 0.2
။ ||| have it . ||| 0.2 0.2 0.6 0.6 0.2 0.2
။ ||| have the check ? ||| 0.6 0.2 0.2 0.6 0.2 0.2
။ ||| head . ||| 0.2 0.2 0.6 0.6 0.2 0.2
။ ||| help . ||| 0.142857 0.142857 0.714286 0.428571 0.142857 0.428571
။ ||| help me ! help ||| 0.2 0.2 0.6 0.2 0.6 0.2
။ ||| help me ! ||| 0.2 0.2 0.6 0.2 0.2 0.6
။ ||| her . ||| 0.2 0.2 0.6 0.2 0.2 0.6
။ ||| her house . ||| 0.2 0.2 0.6 0.6 0.2 0.2
။ ||| here . ||| 0.2 0.2 0.6 0.6 0.2 0.2
။ ||| him . ||| 0.111111 0.111111 0.777778 0.777778 0.111111 0.111111
။ ||| hour . ||| 0.142857 0.142857 0.714286 0.714286 0.142857 0.142857
။ ||| house . ||| 0.2 0.2 0.6 0.6 0.2 0.2
။ ||| hunger . ||| 0.2 0.2 0.6 0.6 0.2 0.2
။ ||| hurt . ||| 0.142857 0.142857 0.714286 0.428571 0.142857 0.428571
။ ||| i am . ||| 0.2 0.2 0.6 0.6 0.2 0.2
။ ||| ill . ||| 0.2 0.2 0.6 0.2 0.2 0.6
။ ||| in a short time . ||| 0.2 0.2 0.6 0.6 0.2 0.2
။ ||| in anger . ||| 0.2 0.2 0.6 0.2 0.2 0.6
။ ||| in motion . ||| 0.2 0.2 0.6 0.6 0.2 0.2
။ ||| in season . ||| 0.2 0.2 0.6 0.6 0.2 0.2
။ ||| in the head . ||| 0.2 0.2 0.6 0.6 0.2 0.2
။ ||| in world . ||| 0.2 0.2 0.6 0.2 0.2 0.6
။ ||| in your studies . ||| 0.2 0.2 0.6 0.6 0.2 0.2
။ ||| incident . ||| 0.2 0.2 0.6 0.6 0.2 0.2
။ ||| is ! ||| 0.2 0.2 0.6 0.6 0.2 0.2
။ ||| is . ||| 0.2 0.2 0.6 0.2 0.2 0.6
။ ||| is popular . ||| 0.2 0.2 0.6 0.6 0.2 0.2
။ ||| is run down . ||| 0.6 0.2 0.2 0.6 0.2 0.2
။ ||| is run down ||| 0.6 0.2 0.2 0.2 0.2 0.6
။ ||| is run ||| 0.6 0.2 0.2 0.2 0.2 0.6
။ ||| is ||| 0.157895 0.0526316 0.789474 0.0526316 0.368421 0.578947
။ ||| it ! ||| 0.2 0.2 0.6 0.6 0.2 0.2
။ ||| it . ||| 0.0697674 0.0232558 0.906977 0.813953 0.0232558 0.162791
။ ||| it is . ||| 0.6 0.2 0.2 0.2 0.2 0.6
။ ||| it is ||| 0.2 0.2 0.6 0.2 0.6 0.2
။ ||| it over . ||| 0.2 0.2 0.6 0.6 0.2 0.2
။ ||| it was over . ||| 0.2 0.2 0.6 0.2 0.2 0.6
။ ||| it ||| 0.111111 0.111111 0.777778 0.111111 0.111111 0.777778
။ ||| job . ||| 0.2 0.2 0.6 0.6 0.2 0.2
။ ||| just left . ||| 0.6 0.2 0.2 0.6 0.2 0.2
။ ||| khin . ||| 0.2 0.2 0.6 0.6 0.2 0.2
။ ||| kindness . ||| 0.6 0.2 0.2 0.6 0.2 0.2
။ ||| ko . ||| 0.2 0.6 0.2 0.2 0.2 0.6
။ ||| label . ||| 0.2 0.2 0.6 0.6 0.2 0.2
။ ||| late . ||| 0.2 0.2 0.6 0.6 0.2 0.2
။ ||| left . ||| 0.142857 0.142857 0.714286 0.714286 0.142857 0.142857
။ ||| lies the rub . ||| 0.2 0.2 0.6 0.6 0.2 0.2
။ ||| light . ||| 0.111111 0.111111 0.777778 0.777778 0.111111 0.111111
။ ||| like . ||| 0.2 0.2 0.6 0.6 0.2 0.2
။ ||| list . ||| 0.2 0.2 0.6 0.6 0.2 0.2
။ ||| lot out ! ||| 0.2 0.2 0.6 0.6 0.2 0.2
။ ||| low . ||| 0.2 0.2 0.6 0.6 0.2 0.2
။ ||| luck . ||| 0.428571 0.142857 0.428571 0.714286 0.142857 0.142857
။ ||| lucky ! ||| 0.2 0.2 0.6 0.6 0.2 0.2
။ ||| made . ||| 0.142857 0.142857 0.714286 0.714286 0.142857 0.142857
။ ||| make yourself ill . ||| 0.6 0.2 0.2 0.2 0.2 0.6
။ ||| man . ||| 0.2 0.2 0.6 0.6 0.2 0.2
။ ||| me ! help ||| 0.2 0.2 0.6 0.2 0.6 0.2
။ ||| me ! ||| 0.2 0.2 0.6 0.2 0.2 0.6
။ ||| me . ||| 0.0666667 0.0666667 0.866667 0.733333 0.0666667 0.2
။ ||| me off . ||| 0.2 0.2 0.6 0.6 0.2 0.2
။ ||| meant . ||| 0.2 0.2 0.6 0.6 0.2 0.2
။ ||| mind . ||| 0.2 0.2 0.6 0.6 0.2 0.2
။ ||| minutes . ||| 0.2 0.2 0.6 0.6 0.2 0.2
။ ||| miss it . ||| 0.6 0.2 0.2 0.6 0.2 0.2
။ ||| motion . ||| 0.2 0.2 0.6 0.6 0.2 0.2
။ ||| my way . ||| 0.2 0.2 0.6 0.6 0.2 0.2
။ ||| myself . ||| 0.2 0.2 0.6 0.6 0.2 0.2
။ ||| near . ||| 0.2 0.2 0.6 0.6 0.2 0.2
။ ||| no . ||| 0.6 0.2 0.2 0.6 0.2 0.2
။ ||| now . ||| 0.333333 0.111111 0.555556 0.777778 0.111111 0.111111
။ ||| of an hour . ||| 0.2 0.2 0.6 0.6 0.2 0.2
။ ||| of hunger . ||| 0.6 0.2 0.2 0.6 0.2 0.2
။ ||| off . ||| 0.111111 0.111111 0.777778 0.555556 0.111111 0.333333
။ ||| oh ! ||| 0.2 0.2 0.6 0.2 0.2 0.6
။ ||| old . ||| 0.2 0.2 0.6 0.6 0.2 0.2
။ ||| on . ||| 0.2 0.2 0.6 0.6 0.2 0.2
။ ||| on a waiting list . ||| 0.2 0.2 0.6 0.6 0.2 0.2
။ ||| on strike . ||| 0.2 0.2 0.6 0.2 0.2 0.6
။ ||| on the left . ||| 0.2 0.2 0.6 0.6 0.2 0.2
။ ||| open it . ||| 0.6 0.2 0.2 0.6 0.2 0.2
။ ||| out ! ||| 0.2 0.2 0.6 0.6 0.2 0.2
။ ||| out . ||| 0.384615 0.0769231 0.538462 0.692308 0.0769231 0.230769
။ ||| over . ||| 0.0909091 0.0909091 0.818182 0.636364 0.0909091 0.272727
။ ||| past . ||| 0.2 0.2 0.6 0.6 0.2 0.2
။ ||| peace . ||| 0.2 0.2 0.6 0.6 0.2 0.2
။ ||| person . ||| 0.2 0.2 0.6 0.6 0.2 0.2
။ ||| please . ||| 0.142857 0.142857 0.714286 0.428571 0.142857 0.428571
။ ||| popular . ||| 0.2 0.2 0.6 0.6 0.2 0.2
။ ||| preference . ||| 0.2 0.2 0.6 0.6 0.2 0.2
။ ||| ran off . ||| 0.2 0.2 0.6 0.2 0.2 0.6
။ ||| red alert . ||| 0.2 0.2 0.6 0.6 0.2 0.2
။ ||| reforms . ||| 0.2 0.2 0.6 0.6 0.2 0.2
။ ||| relief when it was over . ||| 0.2 0.2 0.6 0.2 0.2 0.6
။ ||| rely on . ||| 0.2 0.2 0.6 0.6 0.2 0.2
။ ||| right . ||| 0.142857 0.142857 0.714286 0.714286 0.142857 0.142857
။ ||| right away . ||| 0.2 0.2 0.6 0.6 0.2 0.2
။ ||| ringing . ||| 0.6 0.2 0.2 0.6 0.2 0.2
။ ||| rub . ||| 0.2 0.2 0.6 0.6 0.2 0.2
။ ||| running up . ||| 0.6 0.2 0.2 0.6 0.2 0.2
။ ||| rush hour . ||| 0.2 0.2 0.6 0.6 0.2 0.2
။ ||| sake . ||| 0.6 0.2 0.2 0.6 0.2 0.2
။ ||| scolded . ||| 0.2 0.2 0.6 0.6 0.2 0.2
။ ||| season . ||| 0.2 0.2 0.6 0.6 0.2 0.2
။ ||| see . ||| 0.2 0.2 0.6 0.6 0.2 0.2
။ ||| send away . ||| 0.6 0.2 0.2 0.6 0.2 0.2
။ ||| set . ||| 0.6 0.2 0.2 0.6 0.2 0.2
။ ||| she gets . ||| 0.2 0.2 0.6 0.6 0.2 0.2
။ ||| short time . ||| 0.2 0.2 0.6 0.6 0.2 0.2
။ ||| side . ||| 0.2 0.2 0.6 0.6 0.2 0.2
။ ||| so . ||| 0.6 0.2 0.2 0.6 0.2 0.2
။ ||| soundly . ||| 0.2 0.2 0.6 0.6 0.2 0.2
။ ||| spell . ||| 0.2 0.2 0.6 0.2 0.2 0.6
။ ||| stand . ||| 0.6 0.2 0.2 0.6 0.2 0.2
။ ||| started . ||| 0.2 0.2 0.6 0.6 0.2 0.2
။ ||| stock . ||| 0.2 0.2 0.6 0.6 0.2 0.2
။ ||| strength . ||| 0.2 0.2 0.6 0.2 0.2 0.6
။ ||| strike . ||| 0.2 0.2 0.6 0.2 0.2 0.6
။ ||| studies . ||| 0.2 0.2 0.6 0.6 0.2 0.2
။ ||| such thing . &quot; ||| 0.6 0.2 0.2 0.2 0.2 0.6
။ ||| such thing . ||| 0.6 0.2 0.2 0.2 0.2 0.6
။ ||| swallow . ||| 0.6 0.2 0.2 0.6 0.2 0.2
။ ||| taste . ||| 0.2 0.2 0.6 0.6 0.2 0.2
။ ||| that ! ||| 0.2 0.2 0.6 0.6 0.2 0.2
။ ||| that . ||| 0.2 0.2 0.6 0.6 0.2 0.2
။ ||| that again . ||| 0.2 0.2 0.6 0.6 0.2 0.2
။ ||| that they are tight . ||| 0.2 0.2 0.6 0.6 0.2 0.2
။ ||| the answer . ||| 0.2 0.2 0.6 0.6 0.2 0.2
။ ||| the back . ||| 0.2 0.2 0.6 0.6 0.2 0.2
။ ||| the check ? ||| 0.2 0.2 0.6 0.6 0.2 0.2
။ ||| the head . ||| 0.2 0.2 0.6 0.6 0.2 0.2
။ ||| the incident . ||| 0.2 0.2 0.6 0.6 0.2 0.2
။ ||| the left . ||| 0.2 0.2 0.6 0.6 0.2 0.2
။ ||| the light . ||| 0.111111 0.111111 0.777778 0.777778 0.111111 0.111111
။ ||| the past . ||| 0.2 0.2 0.6 0.6 0.2 0.2
။ ||| the rub . ||| 0.2 0.2 0.6 0.6 0.2 0.2
။ ||| them . ||| 0.2 0.2 0.6 0.6 0.2 0.2
။ ||| then . ||| 0.2 0.2 0.6 0.6 0.2 0.2
။ ||| then ? ||| 0.2 0.2 0.6 0.2 0.6 0.2
။ ||| there . ||| 0.2 0.2 0.6 0.6 0.2 0.2
။ ||| there lies the rub . ||| 0.2 0.2 0.6 0.6 0.2 0.2
။ ||| these days . ||| 0.2 0.2 0.6 0.6 0.2 0.2
။ ||| they are tight . ||| 0.2 0.2 0.6 0.6 0.2 0.2
။ ||| thing . &quot; ||| 0.2 0.2 0.6 0.2 0.2 0.6
။ ||| thing . ||| 0.142857 0.142857 0.714286 0.428571 0.142857 0.428571
။ ||| things . ||| 0.2 0.2 0.6 0.6 0.2 0.2
။ ||| tight . ||| 0.2 0.2 0.6 0.6 0.2 0.2
။ ||| time . ||| 0.142857 0.142857 0.714286 0.714286 0.142857 0.142857
။ ||| to . ||| 0.2 0.2 0.6 0.6 0.2 0.2
။ ||| to be lot out ! ||| 0.6 0.2 0.2 0.6 0.2 0.2
။ ||| to me . ||| 0.6 0.2 0.2 0.2 0.2 0.6
။ ||| to now . ||| 0.2 0.2 0.6 0.6 0.2 0.2
။ ||| to side . ||| 0.2 0.2 0.6 0.6 0.2 0.2
။ ||| today . ||| 0.2 0.2 0.6 0.6 0.2 0.2
။ ||| too . ||| 0.2 0.2 0.6 0.6 0.2 0.2
။ ||| tough . ||| 0.2 0.2 0.6 0.6 0.2 0.2
။ ||| treasure . ||| 0.2 0.2 0.6 0.6 0.2 0.2
။ ||| trouble . ||| 0.2 0.2 0.6 0.6 0.2 0.2
။ ||| up . ||| 0.037037 0.037037 0.925926 0.925926 0.037037 0.037037
။ ||| waiting list . ||| 0.2 0.2 0.6 0.6 0.2 0.2
။ ||| was . ||| 0.2 0.2 0.6 0.6 0.2 0.2
။ ||| was over . ||| 0.2 0.2 0.6 0.2 0.2 0.6
။ ||| was right . ||| 0.2 0.2 0.6 0.6 0.2 0.2
။ ||| way . ||| 0.142857 0.142857 0.714286 0.714286 0.142857 0.142857
။ ||| what was right . ||| 0.2 0.2 0.6 0.6 0.2 0.2
။ ||| wheels in motion . ||| 0.2 0.2 0.6 0.6 0.2 0.2
။ ||| when . ||| 0.2 0.2 0.6 0.6 0.2 0.2
။ ||| when it was over . ||| 0.2 0.2 0.6 0.2 0.2 0.6
။ ||| will you ? ||| 0.428571 0.142857 0.428571 0.714286 0.142857 0.142857
။ ||| wing . ||| 0.2 0.2 0.6 0.6 0.2 0.2
။ ||| with . ||| 0.6 0.2 0.2 0.6 0.2 0.2
။ ||| with dirt . ||| 0.2 0.2 0.6 0.6 0.2 0.2
။ ||| woman . ||| 0.2 0.2 0.6 0.6 0.2 0.2
။ ||| wood . ||| 0.2 0.2 0.6 0.6 0.2 0.2
။ ||| work . ||| 0.2 0.2 0.6 0.6 0.2 0.2
။ ||| world . ||| 0.2 0.2 0.6 0.2 0.2 0.6
။ ||| worse . ||| 0.2 0.2 0.6 0.6 0.2 0.2
။ ||| you . ||| 0.111111 0.111111 0.777778 0.777778 0.111111 0.111111
။ ||| you ? ||| 0.111111 0.111111 0.777778 0.777778 0.111111 0.111111
။ ||| you do ? ||| 0.2 0.2 0.6 0.6 0.2 0.2
။ ||| you rely on . ||| 0.2 0.2 0.6 0.6 0.2 0.2
။ ||| you up . ||| 0.2 0.2 0.6 0.6 0.2 0.2
။ ||| young . ||| 0.2 0.2 0.6 0.6 0.2 0.2
။ ||| your boss . ||| 0.142857 0.142857 0.714286 0.428571 0.142857 0.428571
။ ||| your friends . ||| 0.2 0.2 0.6 0.6 0.2 0.2
။ ||| your studies . ||| 0.2 0.2 0.6 0.6 0.2 0.2
။ ||| yours . ||| 0.2 0.2 0.6 0.6 0.2 0.2
။ ||| yourself ill . ||| 0.2 0.2 0.6 0.2 0.2 0.6
